digraph Tree {
node [shape=box] ;
0 [label="X[7] <= 50316.332\nmse = 0.695\nsamples = 83\nvalue = 1.896"] ;
1 [label="X[9] <= 50189.789\nmse = 0.588\nsamples = 65\nvalue = 2.048"] ;
0 -> 1 [labeldistance=2.5, labelangle=45, headlabel="True"] ;
3 [label="X[5] <= 46356.164\nmse = 0.508\nsamples = 63\nvalue = 2.005"] ;
1 -> 3 ;
7 [label="mse = 0.428\nsamples = 48\nvalue = 2.121"] ;
3 -> 7 ;
8 [label="mse = 0.584\nsamples = 15\nvalue = 1.633"] ;
3 -> 8 ;
4 [label="mse = 1.21\nsamples = 2\nvalue = 3.4"] ;
1 -> 4 ;
2 [label="X[2] <= 51693.168\nmse = 0.701\nsamples = 18\nvalue = 1.35"] ;
0 -> 2 [labeldistance=2.5, labelangle=-45, headlabel="False"] ;
5 [label="mse = 0.61\nsamples = 7\nvalue = 0.786"] ;
2 -> 5 ;
6 [label="mse = 0.428\nsamples = 11\nvalue = 1.709"] ;
2 -> 6 ;
}