digraph Tree {
node [shape=box] ;
0 [label="X[3] <= 40368.336\nmse = 0.695\nsamples = 83\nvalue = 1.896"] ;
1 [label="X[9] <= 34491.5\nmse = 0.62\nsamples = 82\nvalue = 1.865"] ;
0 -> 1 [labeldistance=2.5, labelangle=45, headlabel="True"] ;
3 [label="mse = 0.397\nsamples = 59\nvalue = 2.047"] ;
1 -> 3 ;
4 [label="X[2] <= 38749.0\nmse = 0.886\nsamples = 23\nvalue = 1.396"] ;
1 -> 4 ;
5 [label="X[8] <= 36295.75\nmse = 0.746\nsamples = 17\nvalue = 1.088"] ;
4 -> 5 ;
7 [label="mse = 0.406\nsamples = 8\nvalue = 0.512"] ;
5 -> 7 ;
8 [label="mse = 0.491\nsamples = 9\nvalue = 1.6"] ;
5 -> 8 ;
6 [label="mse = 0.256\nsamples = 6\nvalue = 2.267"] ;
4 -> 6 ;
2 [label="mse = 0.0\nsamples = 1\nvalue = 4.5"] ;
0 -> 2 [labeldistance=2.5, labelangle=-45, headlabel="False"] ;
}