digraph Tree {
node [shape=box] ;
0 [label="X[7] <= 3821.833\nmse = 0.695\nsamples = 83\nvalue = 1.896"] ;
1 [label="mse = 0.431\nsamples = 56\nvalue = 2.079"] ;
0 -> 1 [labeldistance=2.5, labelangle=45, headlabel="True"] ;
2 [label="X[2] <= 3161.833\nmse = 1.032\nsamples = 27\nvalue = 1.519"] ;
0 -> 2 [labeldistance=2.5, labelangle=-45, headlabel="False"] ;
3 [label="mse = 0.647\nsamples = 4\nvalue = 0.475"] ;
2 -> 3 ;
4 [label="X[8] <= 4519.417\nmse = 0.877\nsamples = 23\nvalue = 1.7"] ;
2 -> 4 ;
5 [label="X[0] <= 4390.0\nmse = 0.886\nsamples = 12\nvalue = 2.067"] ;
4 -> 5 ;
7 [label="mse = 0.394\nsamples = 10\nvalue = 1.8"] ;
5 -> 7 ;
8 [label="mse = 1.21\nsamples = 2\nvalue = 3.4"] ;
5 -> 8 ;
6 [label="mse = 0.56\nsamples = 11\nvalue = 1.3"] ;
4 -> 6 ;
}