digraph Tree {
node [shape=box] ;
0 [label="X[3] <= 4.735\nmse = 0.695\nsamples = 83\nvalue = 1.896"] ;
1 [label="X[9] <= 4.731\nmse = 0.681\nsamples = 31\nvalue = 1.445"] ;
0 -> 1 [labeldistance=2.5, labelangle=45, headlabel="True"] ;
3 [label="mse = 0.491\nsamples = 27\nvalue = 1.619"] ;
1 -> 3 ;
4 [label="mse = 0.387\nsamples = 4\nvalue = 0.275"] ;
1 -> 4 ;
2 [label="X[2] <= 4.9\nmse = 0.51\nsamples = 52\nvalue = 2.165"] ;
0 -> 2 [labeldistance=2.5, labelangle=-45, headlabel="False"] ;
5 [label="X[5] <= 4.755\nmse = 0.894\nsamples = 10\nvalue = 2.67"] ;
2 -> 5 ;
7 [label="mse = 0.239\nsamples = 6\nvalue = 2.033"] ;
5 -> 7 ;
8 [label="mse = 0.357\nsamples = 4\nvalue = 3.625"] ;
5 -> 8 ;
6 [label="mse = 0.344\nsamples = 42\nvalue = 2.045"] ;
2 -> 6 ;
}