digraph Tree {
node [shape=box] ;
0 [label="X[3] <= -499999968.0\nmse = 0.695\nsamples = 83\nvalue = 1.896"] ;
1 [label="mse = 0.51\nsamples = 52\nvalue = 2.165"] ;
0 -> 1 [labeldistance=2.5, labelangle=45, headlabel="True"] ;
2 [label="X[2] <= 43.167\nmse = 0.681\nsamples = 31\nvalue = 1.445"] ;
0 -> 2 [labeldistance=2.5, labelangle=-45, headlabel="False"] ;
3 [label="mse = 0.09\nsamples = 2\nvalue = -0.3"] ;
2 -> 3 ;
4 [label="X[2] <= 58.133\nmse = 0.497\nsamples = 29\nvalue = 1.566"] ;
2 -> 4 ;
5 [label="X[2] <= 56.217\nmse = 0.36\nsamples = 27\nvalue = 1.674"] ;
4 -> 5 ;
7 [label="mse = 0.3\nsamples = 22\nvalue = 1.55"] ;
5 -> 7 ;
8 [label="mse = 0.258\nsamples = 5\nvalue = 2.22"] ;
5 -> 8 ;
6 [label="mse = 0.04\nsamples = 2\nvalue = 0.1"] ;
4 -> 6 ;
}