digraph Tree {
node [shape=box] ;
0 [label="X[3] <= -4601.5\nmse = 0.695\nsamples = 83\nvalue = 1.896"] ;
1 [label="mse = 0.58\nsamples = 10\nvalue = 1.03"] ;
0 -> 1 [labeldistance=2.5, labelangle=45, headlabel="True"] ;
2 [label="X[6] <= 12329.0\nmse = 0.594\nsamples = 73\nvalue = 2.015"] ;
0 -> 2 [labeldistance=2.5, labelangle=-45, headlabel="False"] ;
3 [label="X[5] <= 21811.0\nmse = 0.428\nsamples = 41\nvalue = 2.327"] ;
2 -> 3 ;
5 [label="mse = 0.317\nsamples = 40\nvalue = 2.272"] ;
3 -> 5 ;
6 [label="mse = -0.0\nsamples = 1\nvalue = 4.5"] ;
3 -> 6 ;
4 [label="X[9] <= 21335.625\nmse = 0.523\nsamples = 32\nvalue = 1.616"] ;
2 -> 4 ;
7 [label="mse = 0.388\nsamples = 26\nvalue = 1.742"] ;
4 -> 7 ;
8 [label="mse = 0.739\nsamples = 6\nvalue = 1.067"] ;
4 -> 8 ;
}